<?xml version="1.0"?>
<opencv_storage>
<stage4>
  <maxWeakCount>5</maxWeakCount>
  <stageThreshold>-1.1446746587753296e+00</stageThreshold>
  <weakClassifiers>
    <_>
      <internalNodes>
        0 -1 104760 -5.6949730962514877e-02</internalNodes>
      <leafValues>
        4.8489665985107422e-01 -6.5083283185958862e-01</leafValues></_>
    <_>
      <internalNodes>
        0 -1 604 9.0444982051849365e-03</internalNodes>
      <leafValues>
        -7.8746497631072998e-01 3.2067716121673584e-01</leafValues></_>
    <_>
      <internalNodes>
        0 -1 411840 2.3186128586530685e-02</internalNodes>
      <leafValues>
        -5.3218084573745728e-01 5.3749245405197144e-01</leafValues></_>
    <_>
      <internalNodes>
        0 -1 424850 2.3838051129132509e-03</internalNodes>
      <leafValues>
        -3.9035418629646301e-01 6.2238234281539917e-01</leafValues></_>
    <_>
      <internalNodes>
        0 -1 395758 -3.3786217682063580e-03</internalNodes>
      <leafValues>
        -9.0472054481506348e-01 3.2463112473487854e-01</leafValues></_></weakClassifiers></stage4>
</opencv_storage>
